
\data\
ngram 1=191
ngram 2=424
ngram 3=164

\1-grams:
-3.106893	20%	-0.03919084
-3.106893	40%	-0.03919084
-3.106893	50	-0.1269457
-3.106893	67	-0.03919084
-0.7361383	</s>
-99	<s>	-0.5065813
-0.3609081	<unk>
-2.042534	ai	-0.1475892
-3.106893	alo	-0.03877474
-3.106893	ban	-0.1259824
-2.523505	bao	-0.3265955
-3.106893	biêt	-0.03919084
-2.700801	biết	-0.03284605
-3.106893	brother	-0.03919084
-3.106893	bè	-0.1233296
-3.106893	bóng	-0.1259824
-2.17337	bạn	-0.1072029
-3.106893	bạn,	-0.1212574
-3.106893	bạn?	-0.03919084
-3.106893	bạt	-0.125392
-2.361503	bật	-0.1889149
-2.523505	camera	-0.2388406
-3.106893	chao	-0.03919084
-3.106893	chaof	-0.03919084
-2.361503	cho	-0.176781
-2.700801	chào	-0.1868921
-3.106893	chào,	-0.1212574
-3.106893	chào.	-0.1212574
-3.106893	chó	-0.1259824
-3.106893	chút	-0.03919084
-2.523505	con	-0.1266058
-3.106893	cái	-0.1269457
-2.523505	còn	-0.1240201
-3.106893	có	-0.1259824
-3.106893	căn	-0.1259824
-3.106893	cần	-0.03919084
-2.523505	của	-0.2322954
-3.106893	duyệt	-0.03919084
-3.106893	dụng	-0.02381529
-3.106893	email	-0.03919084
-3.106893	giang	-0.03919084
-3.106893	giang,	-0.1259824
-2.042534	giúp	-0.330901
-2.700801	giảm	-0.3252018
-3.106893	giờ	-0.1160331
-3.106893	gà	-0.1269457
-2.700801	gì	-0.1612244
-3.106893	gọi	-0.1160331
-2.700801	gửi	-0.2015329
-3.106893	hai	-0.1243621
-3.106893	hey	-0.1269457
-2.523505	hiểu	-0.03687058
-3.106893	hiện	-0.1259824
-3.106893	hoàng	-0.03919084
-2.700801	hà	-0.1350187
-2.523505	hãy	-0.1438039
-3.106893	hình	-0.03919084
-3.106893	hòa	-0.03179568
-2.523505	hôm	-0.3256322
-2.523505	hùng	-0.03051763
-3.106893	hương	-0.03919084
-2.361503	hải	-0.04363497
-3.106893	hẳn	-0.03919084
-3.106893	hộ	-0.1160331
-3.106893	khi	-0.1269457
-3.106893	khác	-0.03919084
-3.106893	khôg	-0.03919084
-2.361503	không	-0.2215035
-3.106893	luyện	-0.1269457
-3.106893	luôn	-0.03919084
-1.792028	là	-0.1142217
-3.106893	làm	-0.1259824
-2.042534	lên	-0.114028
-3.106893	lượng	-0.1172461
-3.106893	lại	-0.1264196
-2.523505	mai	-0.02686159
-3.106893	mail	-0.03919084
-3.106893	mait	-0.03919084
-2.523505	minh	-0.2388406
-3.106893	mp3	-0.03919084
-2.700801	muốn	-0.1140255
-2.523505	màn	-0.3265955
-3.106893	máy	-0.03877474
-1.860624	mình	-0.1908591
-3.106893	mạnh	-0.03919084
-3.106893	mấy	-0.03919084
-2.523505	mệt	-0.03759433
-3.106893	mọi	-0.1269457
-3.106893	một	-0.1269457
-2.042534	mở	-0.1481446
-3.106893	mỹ	-0.1202176
-2.523505	nam	-0.1186235
-2.523505	nay	-0.1757736
-2.700801	nghe	-0.1350187
-3.106893	ngu	-0.03919084
-2.17337	ngày	-0.1246151
-3.106893	người	-0.1269457
-3.106893	nhiêu	-0.03919084
-2.700801	nhiệt	-0.1350187
-2.523505	nhà	-0.1193375
-3.106893	như	-0.1234904
-3.106893	nhạc	-0.03919084
-3.106893	nhỏ	-0.1264196
-3.106893	ninh	-0.1259824
-2.523505	nào	-0.2388406
-3.106893	nói	-0.1264196
-2.700801	nóng	-0.04408719
-3.106893	nội	-0.03238188
-3.106893	obama	-0.1269457
-3.106893	ok	-0.03919084
-3.106893	ok,	-0.1160331
-3.106893	phim	-0.03919084
-2.523505	phòng	-0.1600439
-3.106893	phú	-0.03919084
-3.106893	phải	-0.03453786
-3.106893	phần	-0.1269457
-3.106893	quang	-0.03919084
-3.106893	quyết	-0.1233296
-2.523505	quá	-0.2388406
-3.106893	quạt	-0.03919084
-3.106893	quảng	-0.1269457
-3.106893	rân	-0.03919084
-2.361503	rồi	-0.04481539
-3.106893	sao	-0.1243621
-3.106893	sinh	-0.1243621
-2.523505	sáng	-0.1229869
-3.106893	sơn	-0.03919084
-3.106893	thanh	-0.1168985
-2.523505	thích	-0.3265955
-3.106893	thôi	-0.03919084
-3.106893	thưởng	-0.1160331
-3.106893	thấy	-0.1259824
-3.106893	thật	-0.03919084
-3.106893	thắp	-0.1259824
-2.17337	thế	-0.140545
-3.106893	thếa	-0.03919084
-2.523505	thể	-0.1221124
-3.106893	thống	-0.1266058
-3.106893	thời	-0.1269457
-3.106893	thứ	-0.1269457
-2.700801	tivi	-0.2396957
-3.106893	tiết	-0.1234904
-3.106893	tpoi	-0.1259824
-3.106893	trai	-0.1259824
-3.106893	triệu	-0.1269457
-2.700801	trình	-0.1350187
-3.106893	trăm	-0.03919084
-2.523505	trời	-0.3260694
-3.106893	tuấn	-0.03919084
-2.17337	tên	-0.2406499
-2.700801	tìm	-0.1350187
-1.592159	tôi	-0.09928434
-3.106893	tôi?	-0.03919084
-2.523505	tăng	-0.1255521
-3.106893	tập	-0.1259824
-2.700801	tắt	-0.184718
-3.106893	tổng	-0.1269457
-2.700801	từ	-0.2126325
-3.106893	uk	-0.1269457
-3.106893	uk,	-0.1160331
-3.106893	vũ	-0.03919084
-2.700801	vậy	-0.04200247
-2.523505	về	-0.1245225
-2.523505	với	-0.03877474
-3.106893	xem	-0.1269457
-3.106893	xin	-0.1250565
-3.106893	xn	-0.1264196
-3.106893	youtube	-0.03919084
-2.700801	âm	-0.2743481
-3.106893	ý	-0.1160331
-3.106893	ăn	-0.1269457
-3.106893	đang	-0.1138046
-1.860624	đi	-0.2978112
-2.700801	điều	-0.1350187
-3.106893	đnè	-0.03919084
-3.106893	đây	-0.03919084
-3.106893	đã	-0.1259824
-2.361503	đèn	-0.05319764
-3.106893	đén	-0.03919084
-2.523505	đêm	-0.2388406
-3.106893	đúng	-0.1121165
-3.106893	đường	-0.1203795
-2.523505	được	-0.1260792
-3.106893	đấy	-0.03919084
-2.523505	đến	-0.1245225
-3.106893	để	-0.1269457
-3.106893	đồ	-0.1269457
-3.106893	độ	-0.1255521
-2.523505	ở	-0.1256417
-2.700801	ứng	-0.1350187
-3.106893	ừ,	-0.1259824

\2-grams:
-0.5950952	20% </s>
-0.5950952	40% </s>
-0.5950952	50 phần
-0.5950952	67 </s>
-2.321906	<s> alo
-2.321906	<s> bóng	-0.05344984
-2.321906	<s> bạn	-0.1580891
-1.147604	<s> bật	-0.2718871
-2.441454	<s> chào	-0.008549191
-2.941448	<s> con
-2.941448	<s> giúp
-2.941448	<s> giảm
-2.441454	<s> gửi	-0.008549191
-2.941448	<s> hey
-0.8438802	<s> hãy	-0.3622352
-1.66481	<s> hôm	-0.3151464
-2.941448	<s> hùng
-2.941448	<s> khôg
-1.66481	<s> không	-0.08514033
-2.321906	<s> minh	0.1461999
-0.9883545	<s> mình	-0.5142955
-2.941448	<s> mọi
-1.66481	<s> mở	-0.125573
-2.321906	<s> nam
-2.441454	<s> ngày	-0.0957377
-2.941448	<s> nhiệt
-2.941448	<s> ok,
-2.941448	<s> rồi
-2.941448	<s> sao
-2.941448	<s> thể
-2.441454	<s> thời	-0.1468194
-2.941448	<s> tpoi
-2.090275	<s> trời	-0.07210836
-2.321906	<s> tên	-0.09649508
-2.941448	<s> tìm
-0.7688228	<s> tôi	-0.4653873
-2.090275	<s> tăng	-0.3400474
-1.766188	<s> tắt	-0.02412786
-2.321906	<s> tổng	-0.05344984
-2.941448	<s> uk
-2.941448	<s> uk,
-1.454072	<s> xin	-0.1333944
-2.941448	<s> xn
-2.941448	<s> ý
-2.941448	<s> đã
-1.401706	<s> đúng	-0.146123
-2.941448	<s> để
-2.941448	<s> đồ
-2.941448	<s> ở
-2.941448	<s> ừ,
-0.7537047	ai </s>
-1.373246	ai ai
-0.7537047	ai là	-0.492492
-1.373246	ai đây
-0.8961252	alo </s>
-0.8961252	alo hiện
-0.5950952	ban đêm
-0.2765835	bao nhiêu	-0.05344984
-0.5950952	biêt </s>
-1.197155	biết </s>
-1.197155	biết nói
-1.197155	biết rồi	-0.08337168
-1.197155	biết tên
-0.5950952	brother </s>
-0.5950952	bè giúp
-0.5950952	bóng đêm	0.1461999
-0.6745235	bạn </s>
-1.294065	bạn bè
-1.294065	bạn có	-0.05344984
-1.294065	bạn lại
-0.5950952	bạn, mình
-0.5950952	bạn? </s>
-0.5950952	bạt đèn	-0.1443653
-1.799215	bật ai
-1.799215	bật camera	0.1461999
-1.799215	bật màn	0.1461999
-1.799215	bật quạt
-1.179673	bật tivi	0.0081155
-1.799215	bật trình
-1.799215	bật điều	-0.04537682
-1.799215	bật đnè
-0.9480424	bật đèn	-0.4650204
-1.799215	bật đén
-1.179673	bật ứng	-0.04537682
-0.2765835	camera </s>
-0.5950952	chao </s>
-0.5950952	chaof </s>
-1.294065	cho mình
-1.294065	cho nhỏ
-0.6745235	cho tôi	-0.1498811
-1.294065	cho đèn
-0.6745235	chào </s>
-0.6745235	chào bạn	-0.1708619
-1.294065	chào bạn,
-0.5950952	chào, mình
-0.5950952	chào. mình
-0.5950952	chó nhà
-0.5950952	chút </s>
-0.8961252	con chó
-0.8961252	con trai
-0.5950952	cái máy
-0.8961252	còn bạn
-0.8961252	còn bạn?
-0.5950952	có thể
-0.5950952	căn phòng
-0.5950952	cần </s>
-1.072217	của mình
-0.4526747	của tôi	-0.08486849
-0.5950952	duyệt </s>
-1.440193	dụng </s>
-1.440193	dụng ai	-0.3148034
-1.440193	dụng mp3
-1.440193	dụng nghe	-0.1387464
-1.440193	dụng trình
-1.440193	dụng youtube
-1.440193	dụng đi
-0.5950952	email </s>
-0.5950952	giang </s>
-0.5950952	giang, còn
-0.8206515	giúp mình	-0.1368205
-0.3974223	giúp tôi	-0.2085292
-0.5776135	giảm nhiệt	-0.04537682
-0.5776135	giảm âm	-0.07749233
-0.5950952	giờ tôi
-0.5950952	gà rân	-0.05344984
-0.4526747	gì </s>
-1.072217	gì luôn
-0.5950952	gọi tôi
-0.7940707	gửi email	-0.1468194
-0.6745235	gửi mail	-0.1468194
-0.5950952	hai bạn
-0.5950952	hey brother
-0.8961252	hiểu </s>
-0.8961252	hiểu rồi	-0.08337168
-0.5950952	hiện nay
-0.5950952	hoàng </s>
-0.5722219	hà nội
-0.9755535	hãy bật	-0.4791417
-1.595095	hãy cho
-1.595095	hãy giúp	-0.0519105
-1.595095	hãy giảm
-1.595095	hãy gửi
-1.595095	hãy mở	-0.1894041
-1.595095	hãy tìm
-1.595095	hãy tăng
-1.595095	hãy tắt	-0.02755194
-0.5950952	hình </s>
-0.8961252	hòa </s>
-0.8961252	hòa đi	0.05723396
-0.2765835	hôm nay	-0.01313704
-0.8961252	hùng </s>
-0.8961252	hùng là
-0.5950952	hương </s>
-1.197155	hải </s>
-0.6971607	hải phòng	0.07705864
-0.5950952	hẳn </s>
-0.5950952	hộ tôi
-0.5950952	khi khác
-0.5950952	khác </s>
-0.5950952	khôg </s>
-1.549338	không biêt
-0.6981649	không biết	-0.3353596
-1.549338	không cần
-1.549338	không hẳn	-0.05344984
-0.929796	không phải	-0.04260558
-0.5950952	luyện tập
-0.5950952	luôn </s>
-2.100245	là ai
-2.100245	là bao
-2.100245	là giang
-2.100245	là hoàng
-1.480703	là hùng	-0.1217391
-2.100245	là hương
-2.100245	là hải
-2.100245	là mai
-2.100245	là mait
-1.600251	là minh	-0.07210836
-2.100245	là mạnh	-0.05344984
-1.600251	là nam	-0.5984302
-2.100245	là ngày
-2.100245	là như
-2.100245	là quang
-1.600251	là sơn	-0.1468194
-2.100245	là thưởng
-2.100245	là thế
-2.100245	là thứ
-2.100245	là triệu	-0.3686681
-1.600251	là tuấn	-0.4478494
-2.100245	là tên
-2.100245	là vũ
-0.5950952	làm được
-1.498185	lên 20%
-1.498185	lên 40%
-1.498185	lên 67
-0.8786435	lên </s>
-0.8786435	lên giúp	-0.0519105
-1.498185	lên đi
-0.8961252	lượng lên
-0.8961252	lượng đi
-0.5950952	lại muốn
-1.072217	mai </s>
-1.072217	mai là
-1.072217	mai thế
-0.5950952	mail </s>
-0.5950952	mait </s>
-0.2765835	minh </s>
-0.5950952	mp3 </s>
-1.636488	muốn biết
-1.636488	muốn bạt	-0.05344984
-1.636488	muốn bật	-0.1307899
-1.636488	muốn cho
-1.636488	muốn gửi
-1.636488	muốn luyện
-1.636488	muốn mở	-0.2517406
-1.636488	muốn nghe
-1.636488	muốn tìm
-1.636488	muốn tắt	-0.1183083
-1.636488	muốn xem
-0.2765835	màn hình	-0.4478494
-0.8961252	máy </s>
-0.8961252	máy đấy
-1.016946	mình </s>
-1.636488	mình không	-0.1769932
-0.5937169	mình là	-0.2310423
-1.016946	mình tên	-0.5014653
-1.636488	mình đến
-0.5950952	mạnh </s>
-0.5950952	mấy </s>
-0.8961252	mệt </s>
-0.8961252	mệt quá
-0.5950952	mọi người
-0.5950952	một chút
-1.636488	mở camera	0.1461999
-1.636488	mở cho	-0.07749233
-1.636488	mở giúp
-1.636488	mở nghe
-1.636488	mở tivi
-1.636488	mở trình
-1.016946	mở điều	-0.1387464
-1.136493	mở ứng	-0.7030178
-0.5950952	mỹ là
-0.5776135	nam </s>
-1.197155	nam con
-1.197155	nam mình
-1.294065	nay là	-0.1772737
-1.294065	nay nóng
-1.294065	nay trời	0.0528304
-0.6745235	nay tôi
-0.5722219	nghe nhạc	-0.3686681
-0.5950952	ngu </s>
-1.440193	ngày bao
-1.440193	ngày gì
-1.440193	ngày hôm	0.1461999
-0.9401987	ngày mai	-0.07336478
-1.440193	ngày nào
-0.5950952	người gọi
-0.5950952	nhiêu </s>
-0.5722219	nhiệt độ	-0.1287693
-0.8961252	nhà ai
-0.8961252	nhà mở	-0.1705877
-0.8961252	như thế
-0.8961252	như vậy
-0.5950952	nhạc </s>
-0.5950952	nhỏ âm
-0.5950952	ninh về
-0.2765835	nào </s>
-0.5950952	nói gì
-1.440193	nóng </s>
-0.9401987	nóng quá	-0.2481996
-0.9401987	nóng thật	-0.2717581
-1.197155	nội </s>
-1.197155	nội còn
-1.197155	nội ngày
-1.197155	nội đến
-0.5950952	obama sinh
-0.5950952	ok </s>
-0.5950952	ok, tôi
-0.5950952	phim </s>
-0.4526747	phòng </s>
-1.072217	phòng về
-0.5950952	phú </s>
-1.072217	phải </s>
-1.072217	phải thế
-1.072217	phải vậy
-0.5950952	phần trăm
-0.5950952	quang </s>
-0.5950952	quyết ai
-0.2765835	quá </s>
-0.5950952	quạt </s>
-0.5950952	quảng ninh
-0.5950952	rân </s>
-0.6971607	rồi </s>
-1.197155	rồi giờ
-0.5950952	sao bạn
-0.5950952	sinh ngày
-0.8961252	sáng căn
-0.8961252	sáng lên
-0.5950952	sơn </s>
-1.072217	thanh 50
-1.072217	thanh lên
-1.072217	thanh đi
-0.2765835	thích ăn	-0.05344984
-0.5950952	thôi </s>
-0.5950952	thưởng tôi
-0.5950952	thấy mệt	-0.1217391
-0.5950952	thật </s>
-0.5950952	thắp sáng
-0.4428924	thế </s>
-1.294065	thế nào
-0.5950952	thếa </s>
-1.072217	thể giảm
-1.072217	thể làm
-1.072217	thể mở
-0.8961252	thống mỹ
-0.8961252	thống obama
-0.5950952	thời tiết	-0.05279598
-0.5950952	thứ mấy
-0.4526747	tivi lên	-0.2125053
-1.072217	tivi đi
-0.8961252	tiết ngày
-0.8961252	tiết nóng
-0.5950952	tpoi thích
-0.5950952	trai của
-0.5950952	triệu phú	-0.3686681
-0.5722219	trình duyệt	-0.1468194
-0.5950952	trăm </s>
-0.2765835	trời nóng	-0.1391143
-0.5950952	tuấn </s>
-0.7537047	tên của	0.07705864
-1.373246	tên giang,
-0.7537047	tên là	-0.178188
-1.373246	tên tôi?
-0.5722219	tìm đường	-0.05279598
-1.221044	tôi </s>
-1.452675	tôi biết	-0.1522382
-2.072217	tôi bật	-0.1288014
-2.072217	tôi cái	-0.05344984
-1.452675	tôi hiểu	-0.1217391
-1.452675	tôi không
-1.221044	tôi là	-0.02716208
-1.452675	tôi muốn	-0.2418846
-2.072217	tôi mệt
-2.072217	tôi mở
-2.072217	tôi thích
-1.452675	tôi thấy	-0.05344984
-2.072217	tôi thắp
-2.072217	tôi tên	-0.3148034
-2.072217	tôi với
-1.572222	tôi đang	-0.04260558
-2.072217	tôi ứng
-0.5950952	tôi? </s>
-0.8961252	tăng nhiệt
-0.8961252	tăng âm	0.02221001
-0.5950952	tập với
-0.7537047	tắt màn	-0.07210836
-1.373246	tắt tivi
-0.8732519	tắt đèn	-0.3274868
-0.5950952	tổng thống
-0.5776135	từ hà	-0.04537682
-1.197155	từ hải
-1.197155	từ quảng
-0.5950952	uk ok
-0.5950952	uk, tôi
-0.5950952	vũ </s>
-0.7940707	vậy </s>
-1.294065	vậy hai
-1.294065	vậy hãy
-0.8961252	về hà
-0.8961252	về hải
-0.8961252	với </s>
-0.8961252	với quyết
-0.5950952	xem phim
-1.294065	xin chao	-0.05344984
-1.294065	xin chaof
-1.294065	xin chào	-0.08452251
-1.294065	xin chào,	-0.05344984
-1.294065	xin chào.
-0.5950952	xn chào
-0.5950952	youtube </s>
-1.294065	âm lên
-0.6745235	âm lượng	-0.05279598
-0.6745235	âm thanh
-0.5950952	ý tôi
-0.5950952	ăn gà	-0.05344984
-1.072217	đang muốn
-1.072217	đang tôi
-1.072217	đang ở	-0.1217391
-0.2726992	đi </s>
-1.549338	đi một
-1.549338	đi từ
-0.5722219	điều hòa	-0.2717581
-0.5950952	đnè </s>
-0.5950952	đây </s>
-0.5950952	đã hiểu
-1.095101	đèn </s>
-1.595095	đèn cho	-0.008549191
-1.595095	đèn giúp	-0.06248115
-1.595095	đèn hộ
-1.595095	đèn lên	-0.2738549
-1.595095	đèn sáng
-0.9755535	đèn đi	0.1506035
-0.5950952	đén </s>
-0.2765835	đêm </s>
-1.373246	đúng không
-1.373246	đúng là	-0.1083305
-1.373246	đúng rồi
-1.373246	đúng thế
-1.373246	đúng thếa
-1.373246	đúng vậy	-0.004966676
-0.8961252	đường từ
-0.8961252	đường đi
-0.8961252	được gì
-0.8961252	được thôi
-0.5950952	đấy </s>
-0.8961252	đến hải
-0.8961252	đến từ
-0.5950952	để khi
-0.5950952	đồ ngu
-0.8961252	độ hà
-0.8961252	độ điều	-0.1387464
-0.8961252	ở ban
-0.8961252	ở nhà	-0.1217391
-0.5722219	ứng dụng	-0.1521856
-0.5950952	ừ, được

\3-grams:
-0.2211147	dụng ai là
-0.246154	không biết </s>
-0.4679797	tôi biết rồi
-0.4679797	<s> bóng đêm
-0.4679797	<s> bạn có
-0.3297355	chào bạn </s>
-0.4679797	muốn bạt đèn
-1.422222	<s> bật màn
-1.422222	<s> bật điều
-0.3307833	<s> bật đèn
-1.397399	hãy bật camera
-0.1733894	hãy bật đèn
-0.4641527	muốn bật đèn
-0.4679797	tôi bật đèn
-0.4679797	bật camera </s>
-0.4679797	mở camera </s>
-0.4679797	xin chao </s>
-0.4679797	mở cho tôi
-0.644071	đèn cho tôi
-0.644071	<s> chào bạn
-0.4546742	xin chào </s>
-0.4679797	xin chào, mình
-0.4679797	tôi cái máy
-0.4679797	bạn có thể
-0.644071	tên của tôi
-0.3297355	trình duyệt </s>
-0.9987423	ứng dụng </s>
-0.7651827	ứng dụng ai
-0.9987423	ứng dụng nghe
-0.3297355	gửi email </s>
-0.3297355	hãy giúp tôi
-0.3297355	lên giúp tôi
-0.3180247	đèn giúp tôi
-0.4679797	ăn gà rân
-0.644071	<s> gửi mail
-0.4679797	tôi hiểu rồi
-0.4679797	từ hà nội
-0.372994	<s> hãy bật
-1.384093	<s> hãy giúp
-1.698429	<s> hãy giảm
-0.8876257	<s> hãy mở
-1.384093	<s> hãy tắt
-0.134298	màn hình </s>
-0.3710927	điều hòa </s>
-0.7557042	điều hòa đi
-0.1123779	<s> hôm nay
-0.4679797	ngày hôm nay
-0.4679797	là hùng </s>
-0.4679797	không hẳn </s>
-1.012048	<s> không hẳn
-0.6977123	<s> không phải
-0.3297355	mình không biết
-0.1669728	ai là triệu
-1.397399	mình là minh
-0.4239935	mình là nam
-1.397399	mình là tuấn
-0.4679797	nay là ngày
-0.5819461	tên là nam
-0.9665576	tên là tuấn
-1.16695	tôi là mạnh
-0.644071	đúng là như
-0.3297355	tivi lên </s>
-0.2672798	đèn lên </s>
-1.16695	đèn lên giúp
-0.644071	âm lượng đi
-0.644071	ngày mai là
-0.3297355	gửi mail </s>
-0.4679797	<s> minh </s>
-0.2211147	là minh </s>
-1.509372	tôi muốn bạt
-0.6097025	tôi muốn bật
-1.509372	tôi muốn gửi
-0.8104255	tôi muốn mở
-1.509372	tôi muốn tắt
-0.4679797	bật màn hình
-0.2211147	tắt màn hình
-1.250554	<s> mình không
-0.3408805	<s> mình là
-0.52847	<s> mình tên
-0.4679797	giúp mình </s>
-0.4679797	là mạnh </s>
-0.4679797	thấy mệt </s>
-1.012048	<s> mở camera
-1.012048	<s> mở điều
-0.6977123	<s> mở ứng
-0.3972059	hãy mở ứng
-0.3180247	muốn mở ứng
-0.4679797	nhà mở cho
-0.08906853	là nam </s>
-1.121192	hôm nay là
-1.121192	hôm nay nóng
-0.8068568	hôm nay trời
-1.121192	hôm nay tôi
-0.3297355	dụng nghe nhạc
-0.644071	<s> ngày hôm
-0.4679797	bao nhiêu </s>
-0.4679797	giảm nhiệt độ
-0.4679797	ở nhà mở
-0.1669728	nghe nhạc </s>
-0.4641527	trời nóng quá
-1.012048	trời nóng thật
-0.644071	hải phòng </s>
-0.1669728	triệu phú </s>
-0.7690097	không phải </s>
-0.134298	nóng quá </s>
-0.4679797	gà rân </s>
-0.4679797	biết rồi </s>
-0.4679797	hiểu rồi </s>
-0.3297355	là sơn </s>
-0.4679797	tôi thấy mệt
-0.2211147	nóng thật </s>
-0.3297355	<s> thời tiết
-0.4679797	bật tivi lên
-0.644071	thời tiết nóng
-0.1669728	là triệu phú
-0.2211147	<s> trời nóng
-0.3297355	nay trời nóng
-0.134298	là tuấn </s>
-0.4679797	<s> tên của
-0.1305301	mình tên là
-0.2211147	tôi tên là
-1.76901	<s> tôi không
-0.8693398	<s> tôi là
-0.3141674	<s> tôi muốn
-1.221115	<s> tôi tên
-1.76901	<s> tôi đang
-0.7690097	cho tôi </s>
-0.7690097	cho tôi cái
-0.644071	của tôi </s>
-0.435328	giúp tôi </s>
-1.246131	giúp tôi bật
-0.2211147	<s> tăng âm
-0.945101	<s> tắt màn
-0.6307655	<s> tắt đèn
-0.644071	hãy tắt màn
-0.4679797	muốn tắt đèn
-0.4679797	<s> tổng thống
-0.7690097	đúng vậy </s>
-1.16695	<s> xin chao
-0.6190547	<s> xin chào
-1.16695	<s> xin chào,
-0.4679797	giảm âm lượng
-0.7690097	tăng âm thanh
-0.4679797	thích ăn gà
-0.7690097	tôi đang ở
-0.3297355	hòa đi </s>
-0.4679797	đèn đi </s>
-0.4679797	bật điều hòa
-0.3297355	mở điều hòa
-0.3297355	độ điều hòa
-0.4679797	bạt đèn </s>
-0.5929281	bật đèn </s>
-1.315012	bật đèn cho
-0.9304008	bật đèn giúp
-0.5379089	bật đèn lên
-0.246154	tắt đèn </s>
-0.4679797	bóng đêm </s>
-0.894007	<s> đúng là
-0.6604474	<s> đúng vậy
-0.644071	tìm đường từ
-0.4546742	nhiệt độ điều
-0.4679797	đang ở nhà
-0.4679797	bật ứng dụng
-0.06807728	mở ứng dụng

\end\
