
\data\
ngram 1=191
ngram 2=424
ngram 3=164

\1-grams:
-3.067259	20%	-0.2094352
-3.067259	40%	-0.2094352
-3.067259	50	-0.3006578
-3.067259	67	-0.2094352
-0.7209064	</s>
-99	<s>	-1.174452
-1.555286	<unk>
-2.113017	ai	-0.5681623
-2.766229	alo	-0.1297944
-3.067259	ban	-0.2999126
-2.766229	bao	-0.6013154
-3.067259	biêt	-0.2094352
-2.113017	biết	-0.5869637
-3.067259	brother	-0.2094352
-3.067259	bè	-0.2957907
-2.766229	bóng	-0.6009426
-2.164169	bạn	-0.508624
-3.067259	bạn,	-0.2881947
-3.067259	bạn?	-0.2094352
-2.766229	bạt	-0.5876895
-1.423807	bật	-1.146453
-2.465199	camera	-0.9497979
-2.766229	chao	-0.5104653
-3.067259	chaof	-0.2094352
-2.222161	cho	-0.4484054
-2.164169	chào	-0.7171649
-2.766229	chào,	-0.5892248
-3.067259	chào.	-0.2881947
-3.067259	chó	-0.2999126
-3.067259	chút	-0.2094352
-2.766229	con	-0.2211041
-2.766229	cái	-0.6013154
-2.766229	còn	-0.2184879
-2.766229	có	-0.6009426
-3.067259	căn	-0.2995395
-3.067259	cần	-0.2094352
-2.465199	của	-0.5615408
-2.590138	duyệt	-0.7535033
-1.921131	dụng	-0.4959875
-2.590138	email	-0.7535033
-3.067259	giang	-0.2094352
-3.067259	giang,	-0.3002854
-1.921131	giúp	-1.511743
-2.465199	giảm	-0.5979487
-3.067259	giờ	-0.2741778
-2.766229	gà	-0.6013154
-2.590138	gì	-0.3339144
-3.067259	gọi	-0.2741778
-2.289108	gửi	-0.8823689
-3.067259	hai	-0.2980438
-3.067259	hey	-0.3006578
-2.590138	hiểu	-0.3316093
-3.067259	hiện	-0.2972941
-3.067259	hoàng	-0.2094352
-2.465199	hà	-1.039902
-1.523191	hãy	-1.106841
-2.289108	hình	-1.250828
-2.164169	hòa	-1.00552
-2.113017	hôm	-1.659022
-2.590138	hùng	-0.308834
-3.067259	hương	-0.2094352
-2.465199	hải	-0.508624
-2.766229	hẳn	-0.5104653
-3.067259	hộ	-0.2741778
-3.067259	khi	-0.3006578
-3.067259	khác	-0.2094352
-3.067259	khôg	-0.2094352
-1.921131	không	-0.8589312
-3.067259	luyện	-0.3006578
-3.067259	luôn	-0.2094352
-1.334866	là	-0.6981965
-3.067259	làm	-0.3002854
-1.83681	lên	-0.7740543
-2.590138	lượng	-0.415045
-3.067259	lại	-0.2920093
-2.465199	mai	-0.2162148
-2.590138	mail	-0.7535033
-3.067259	mait	-0.2094352
-2.289108	minh	-1.250828
-3.067259	mp3	-0.2094352
-1.687048	muốn	-0.6298294
-2.289108	màn	-1.340185
-2.766229	máy	-0.1297944
-1.53578	mình	-1.468038
-2.766229	mạnh	-0.5104653
-3.067259	mấy	-0.2094352
-2.590138	mệt	-0.3311468
-3.067259	mọi	-0.3006578
-3.067259	một	-0.3006578
-1.724837	mở	-0.8378169
-3.067259	mỹ	-0.2804634
-1.863139	nam	-1.25641
-2.067259	nay	-0.7145311
-2.368289	nghe	-1.202256
-3.067259	ngu	-0.2094352
-2.164169	ngày	-0.4291884
-3.067259	người	-0.3006578
-2.766229	nhiêu	-0.5104653
-2.465199	nhiệt	-1.039902
-2.590138	nhà	-0.4142814
-2.766229	như	-0.2177375
-2.368289	nhạc	-1.112525
-3.067259	nhỏ	-0.2984183
-3.067259	ninh	-0.3002854
-2.766229	nào	-0.5104653
-3.067259	nói	-0.2999126
-2.025867	nóng	-0.9640208
-2.465199	nội	-0.04898609
-3.067259	obama	-0.3006578
-3.067259	ok	-0.2094352
-3.067259	ok,	-0.2741778
-3.067259	phim	-0.2094352
-2.465199	phòng	-0.5095456
-2.368289	phú	-1.112525
-2.465199	phải	-0.2391152
-3.067259	phần	-0.3006578
-3.067259	quang	-0.2094352
-3.067259	quyết	-0.2976691
-2.222161	quá	-1.370803
-3.067259	quạt	-0.2094352
-3.067259	quảng	-0.3006578
-2.766229	rân	-0.5104653
-2.289108	rồi	-0.7925523
-3.067259	sao	-0.2980438
-3.067259	sinh	-0.2980438
-2.766229	sáng	-0.2151009
-2.590138	sơn	-0.7535033
-2.590138	thanh	-0.1647858
-2.766229	thích	-0.6013154
-3.067259	thôi	-0.2094352
-3.067259	thưởng	-0.2741778
-2.766229	thấy	-0.6009426
-2.465199	thật	-0.9497979
-3.067259	thắp	-0.3002854
-2.368289	thế	-0.6608133
-3.067259	thếa	-0.2094352
-2.590138	thể	-0.1659297
-2.766229	thống	-0.2211041
-2.590138	thời	-0.8439806
-3.067259	thứ	-0.3006578
-2.465199	tivi	-0.5911362
-2.590138	tiết	-0.4188429
-3.067259	tpoi	-0.3002854
-3.067259	trai	-0.2995395
-2.368289	triệu	-1.202256
-2.590138	trình	-0.8439806
-3.067259	trăm	-0.2094352
-2.222161	trời	-1.458287
-2.289108	tuấn	-1.250828
-1.811987	tên	-1.220125
-2.590138	tìm	-0.8439806
-1.222161	tôi	-1.008173
-3.067259	tôi?	-0.2094352
-2.368289	tăng	-0.7492164
-3.067259	tập	-0.3002854
-2.025867	tắt	-1.042465
-2.766229	tổng	-0.6013154
-2.465199	từ	-0.3324313
-3.067259	uk	-0.3006578
-3.067259	uk,	-0.2741778
-3.067259	vũ	-0.2094352
-2.289108	vậy	-0.4936065
-2.766229	về	-0.2188626
-2.766229	với	-0.1297944
-3.067259	xem	-0.3006578
-2.067259	xin	-0.5968207
-3.067259	xn	-0.2980438
-3.067259	youtube	-0.2094352
-2.222161	âm	-0.7045693
-3.067259	ý	-0.2741778
-2.766229	ăn	-0.6013154
-2.465199	đang	-0.2981221
-1.988078	đi	-1.036436
-2.164169	điều	-1.565216
-3.067259	đnè	-0.2094352
-3.067259	đây	-0.2094352
-3.067259	đã	-0.2999126
-1.487476	đèn	-1.310096
-3.067259	đén	-0.2094352
-2.590138	đêm	-0.7535033
-2.025867	đúng	-0.5018831
-2.590138	đường	-0.4199758
-2.766229	được	-0.2203583
-3.067259	đấy	-0.2094352
-2.766229	đến	-0.2188626
-3.067259	để	-0.3006578
-3.067259	đồ	-0.3006578
-2.465199	độ	-0.597573
-2.590138	ở	-0.4244783
-1.921131	ứng	-2.020066
-3.067259	ừ,	-0.3002854

\2-grams:
-0.30103	20% </s>
-0.30103	40% </s>
-0.30103	50 phần
-0.30103	67 </s>
-2.064679	<s> alo
-2.064679	<s> bóng	0
-2.064679	<s> bạn	-0.5118834
-1.110437	<s> bật	0.06095147
-1.888588	<s> chào	-0.0683082
-2.365709	<s> con
-2.365709	<s> giúp
-2.365709	<s> giảm
-1.888588	<s> gửi	0.01370127
-2.365709	<s> hey
-0.8342302	<s> hãy	0.01622629
-1.520611	<s> hôm	0.2003598
-2.365709	<s> hùng
-2.365709	<s> khôg
-1.520611	<s> không	-0.09259416
-2.064679	<s> minh	0.7403627
-0.9677691	<s> mình	-0.8829374
-2.365709	<s> mọi
-1.520611	<s> mở	-0.2849667
-2.064679	<s> nam
-1.888588	<s> ngày	-0.1591184
-2.365709	<s> nhiệt
-2.365709	<s> ok,
-2.365709	<s> rồi
-2.365709	<s> sao
-2.365709	<s> thể
-1.888588	<s> thời	0
-2.365709	<s> tpoi
-1.763649	<s> trời	0.4210054
-2.064679	<s> tên	-0.527814
-2.365709	<s> tìm
-0.7636491	<s> tôi	-0.4538656
-1.763649	<s> tăng	-0.5743718
-1.587558	<s> tắt	0.3436834
-2.064679	<s> tổng	0
-2.365709	<s> uk
-2.365709	<s> uk,
-1.365709	<s> xin	0
-2.365709	<s> xn
-2.365709	<s> ý
-2.365709	<s> đã
-1.324316	<s> đúng	0
-2.365709	<s> để
-2.365709	<s> đồ
-2.365709	<s> ở
-2.365709	<s> ừ,
-0.752344	ai </s>
-1.053374	ai ai
-0.354404	ai là	-1.169958
-1.053374	ai đây
-0.69897	alo </s>
-0.69897	alo hiện
-0.30103	ban đêm
-0.1249387	bao nhiêu	0
-0.30103	biêt </s>
-0.354404	biết </s>
-1.053374	biết nói
-0.752344	biết rồi	-0.04196453
-1.053374	biết tên
-0.30103	brother </s>
-0.30103	bè giúp
-0.1249387	bóng đêm	0.243038
-0.4259687	bạn </s>
-1.028029	bạn bè
-0.7269987	bạn có	0
-1.028029	bạn lại
-0.30103	bạn, mình
-0.30103	bạn? </s>
-0.1249387	bạt đèn	-0.3763643
-1.673075	bật ai
-1.372045	bật camera	0.4393327
-1.372045	bật màn	0.7403627
-1.673075	bật quạt
-1.372045	bật tivi	-0.2430381
-1.673075	bật trình
-1.372045	bật điều	0.9661416
-1.673075	bật đnè
-0.2106771	bật đèn	-0.08801991
-1.673075	bật đén
-1.372045	bật ứng	1.423246
-0.04139268	camera </s>
-0.1249387	chao </s>
-0.30103	chaof </s>
-1.007825	cho mình
-1.007825	cho nhỏ
-0.4057654	cho tôi	-0.5188519
-1.007825	cho đèn
-0.3735807	chào </s>
-0.4985194	chào bạn	-0.640978
-0.9756407	chào bạn,
-0.1249387	chào, mình
-0.30103	chào. mình
-0.30103	chó nhà
-0.30103	chút </s>
-0.69897	con chó
-0.69897	con trai
-0.1249387	cái máy
-0.69897	còn bạn
-0.69897	còn bạn?
-0.1249387	có thể
-0.30103	căn phòng
-0.30103	cần </s>
-0.7269987	của mình
-0.2498775	của tôi	-0.1647606
-0.06694679	duyệt </s>
-0.7939455	dụng </s>
-0.6690068	dụng ai	-0.7878892
-1.271067	dụng mp3
-0.7939455	dụng nghe	0.359022
-1.271067	dụng trình
-1.271067	dụng youtube
-1.271067	dụng đi
-0.06694679	email </s>
-0.30103	giang </s>
-0.30103	giang, còn
-0.8574485	giúp mình	-0.5629922
-0.07929723	giúp tôi	-0.2178219
-0.4259687	giảm nhiệt	0.4393327
-0.4259687	giảm âm	-0.4178886
-0.30103	giờ tôi
-0.1249387	gà rân	0
-0.3802112	gì </s>
-0.6812412	gì luôn
-0.30103	gọi tôi
-0.3617278	gửi email	0
-0.3617278	gửi mail	0
-0.30103	hai bạn
-0.30103	hey brother
-0.6812412	hiểu </s>
-0.3802112	hiểu rồi	-0.04196453
-0.30103	hiện nay
-0.30103	hoàng </s>
-0.04139268	hà nội
-0.3453335	hãy bật	-0.29374
-1.575782	hãy cho
-1.098661	hãy giúp	-0.06752622
-1.274752	hãy giảm
-1.575782	hãy gửi
-0.7976312	hãy mở	-0.05611593
-1.575782	hãy tìm
-1.575782	hãy tăng
-1.098661	hãy tắt	-0.05884939
-0.02020339	hình </s>
-0.2398355	hòa </s>
-0.4616843	hòa đi	-0.2037847
-0.009545318	hôm nay	0.08065587
-0.3802112	hùng </s>
-0.6812412	hùng là
-0.30103	hương </s>
-0.7269987	hải </s>
-0.2498775	hải phòng	0.1249388
-0.1249387	hẳn </s>
-0.30103	hộ tôi
-0.30103	khi khác
-0.30103	khác </s>
-0.30103	khôg </s>
-1.209797	không biêt
-0.4316459	không biết	-0.306592
-1.209797	không cần
-0.9087671	không hẳn	0
-0.6077371	không phải	0
-0.30103	luyện tập
-0.30103	luôn </s>
-1.820184	là ai
-1.820184	là bao
-1.820184	là giang
-1.820184	là hoàng
-1.519154	là hùng	-0.3679768
-1.820184	là hương
-1.820184	là hải
-1.820184	là mai
-1.820184	là mait
-1.218124	là minh	0.30103
-1.519154	là mạnh	0
-0.6740564	là nam	-0.2227327
-1.519154	là ngày
-1.519154	là như
-1.820184	là quang
-1.343063	là sơn	0
-1.820184	là thưởng
-1.820184	là thế
-1.820184	là thứ
-1.121214	là triệu	0
-1.042033	là tuấn	0
-1.820184	là tên
-1.820184	là vũ
-0.30103	làm được
-1.291967	lên 20%
-1.291967	lên 40%
-1.291967	lên 67
-0.2919669	lên </s>
-0.8148457	lên giúp	-0.06752622
-1.291967	lên đi
-0.6812412	lượng lên
-0.3802112	lượng đi
-0.30103	lại muốn
-0.8709053	mai </s>
-0.5698753	mai là
-0.8709053	mai thế
-0.06694679	mail </s>
-0.30103	mait </s>
-0.02020339	minh </s>
-0.30103	mp3 </s>
-1.483806	muốn biết
-1.182775	muốn bạt	0
-0.6387075	muốn bật	0.1985464
-1.483806	muốn cho
-1.182775	muốn gửi
-1.483806	muốn luyện
-0.7848355	muốn mở	-0.2221069
-1.483806	muốn nghe
-1.483806	muốn tìm
-1.182775	muốn tắt	-0.3027432
-1.483806	muốn xem
-0.02020339	màn hình	0
-0.69897	máy </s>
-0.69897	máy đấy
-1.065353	mình </s>
-1.065353	mình không	-0.644349
-0.3120254	mình là	-0.148976
-0.5424743	mình tên	-0.3354511
-1.542474	mình đến
-0.1249387	mạnh </s>
-0.30103	mấy </s>
-0.3802112	mệt </s>
-0.6812412	mệt quá
-0.30103	mọi người
-0.30103	một chút
-1.105851	mở camera	0.4393327
-1.105851	mở cho	-0.3853509
-1.406881	mở giúp
-1.406881	mở nghe
-1.406881	mở tivi
-1.406881	mở trình
-0.9297594	mở điều	0.7231036
-0.365488	mở ứng	0.1992309
-0.30103	mỹ là
-0.07715511	nam </s>
-1.223283	nam con
-1.223283	nam mình
-0.779626	nay là	-0.588716
-0.779626	nay nóng
-0.6035347	nay trời	0.6173
-0.6035347	nay tôi
-0.02802872	nghe nhạc	0
-0.30103	ngu </s>
-1.100901	ngày bao
-1.100901	ngày gì
-0.7998705	ngày hôm	1.060698
-0.6237792	ngày mai	-0.09786345
-1.100901	ngày nào
-0.30103	người gọi
-0.1249387	nhiêu </s>
-0.04139268	nhiệt độ	0
-0.6812412	nhà ai
-0.3802112	nhà mở	-0.5666167
-0.69897	như thế
-0.69897	như vậy
-0.02802872	nhạc </s>
-0.30103	nhỏ âm
-0.30103	ninh về
-0.1249387	nào </s>
-0.30103	nói gì
-1.080901	nóng </s>
-0.30275	nóng quá	0.1199753
-0.4788412	nóng thật	0
-1.146128	nội </s>
-1.146128	nội còn
-1.146128	nội ngày
-1.146128	nội đến
-0.30103	obama sinh
-0.30103	ok </s>
-0.30103	ok, tôi
-0.30103	phim </s>
-0.2498775	phòng </s>
-0.7269987	phòng về
-0.02802872	phú </s>
-0.5698753	phải </s>
-0.8709053	phải thế
-0.8709053	phải vậy
-0.30103	phần trăm
-0.30103	quang </s>
-0.30103	quyết ai
-0.01523997	quá </s>
-0.30103	quạt </s>
-0.30103	quảng ninh
-0.1249387	rân </s>
-0.1398791	rồi </s>
-0.8388491	rồi giờ
-0.30103	sao bạn
-0.30103	sinh ngày
-0.69897	sáng căn
-0.69897	sáng lên
-0.06694679	sơn </s>
-0.9542425	thanh 50
-0.9542425	thanh lên
-0.9542425	thanh đi
-0.1249387	thích ăn	0
-0.30103	thôi </s>
-0.30103	thưởng tôi
-0.1249387	thấy mệt	-0.3679768
-0.04139268	thật </s>
-0.30103	thắp sáng
-0.1812309	thế </s>
-0.7832909	thế nào
-0.30103	thếa </s>
-0.9542425	thể giảm
-0.9542425	thể làm
-0.9542425	thể mở
-0.69897	thống mỹ
-0.69897	thống obama
-0.06694679	thời tiết	0
-0.30103	thứ mấy
-0.2498775	tivi lên	-0.5348118
-0.7269987	tivi đi
-0.6812412	tiết ngày
-0.3802112	tiết nóng
-0.30103	tpoi thích
-0.30103	trai của
-0.02802872	triệu phú	0
-0.06694679	trình duyệt	0
-0.30103	trăm </s>
-0.01523997	trời nóng	0.2592672
-0.02020339	tuấn </s>
-0.8037053	tên của	0.1249388
-1.280827	tên giang,
-0.1668833	tên là	-0.09496328
-1.280827	tên tôi?
-0.06694679	tìm đường	0
-0.8311096	tôi </s>
-1.571472	tôi biết	-0.5175281
-1.571472	tôi bật	-0.1868046
-1.571472	tôi cái	0
-1.571472	tôi hiểu	-0.3679768
-1.395381	tôi không
-0.8725023	tôi là	-0.01323952
-0.5300797	tôi muốn	-0.1035756
-1.872502	tôi mệt
-1.872502	tôi mở
-1.872502	tôi thích
-1.571472	tôi thấy	0
-1.872502	tôi thắp
-1.270442	tôi tên	-0.5452482
-1.872502	tôi với
-1.270442	tôi đang	0
-1.872502	tôi ứng
-0.30103	tôi? </s>
-0.7832909	tăng nhiệt
-0.1812309	tăng âm	0.04795162
-0.30103	tập với
-0.4788412	tắt màn	0.30103
-1.080901	tắt tivi
-0.30275	tắt đèn	-0.3343998
-0.1249387	tổng thống
-0.5698753	từ hà	0.4393327
-0.8709053	từ hải
-0.8709053	từ quảng
-0.30103	uk ok
-0.30103	uk, tôi
-0.30103	vũ </s>
-0.30103	vậy </s>
-0.90309	vậy hai
-0.90309	vậy hãy
-0.69897	về hà
-0.69897	về hải
-0.69897	với </s>
-0.69897	với quyết
-0.30103	xem phim
-0.8239087	xin chao	0
-1.124939	xin chaof
-0.5228788	xin chào	-0.1201399
-0.8239087	xin chào,	0
-1.124939	xin chào.
-0.30103	xn chào
-0.30103	youtube </s>
-0.9385197	âm lên
-0.4613985	âm lượng	0
-0.4613985	âm thanh
-0.30103	ý tôi
-0.1249387	ăn gà	0
-0.8709053	đang muốn
-0.8709053	đang tôi
-0.5698753	đang ở	-0.3679768
-0.112605	đi </s>
-1.112605	đi một
-1.112605	đi từ
-0.01189922	điều hòa	0
-0.30103	đnè </s>
-0.30103	đây </s>
-0.30103	đã hiểu
-0.3922327	đèn </s>
-1.119231	đèn cho	-0.0173741
-0.8973827	đèn giúp	0.3105509
-1.596353	đèn hộ
-0.5963527	đèn lên	-0.2409278
-1.596353	đèn sáng
-1.295323	đèn đi	0.03925329
-0.30103	đén </s>
-0.06694679	đêm </s>
-1.191155	đúng không
-0.7140337	đúng là	-0.2207392
-1.191155	đúng rồi
-1.191155	đúng thế
-1.191155	đúng thếa
-0.589095	đúng vậy	0.1648102
-0.3802112	đường từ
-0.6812412	đường đi
-0.69897	được gì
-0.69897	được thôi
-0.30103	đấy </s>
-0.69897	đến hải
-0.69897	đến từ
-0.30103	để khi
-0.30103	đồ ngu
-0.7269987	độ hà
-0.2498775	độ điều	0.7231036
-0.6812412	ở ban
-0.3802112	ở nhà	-0.3679768
-0.004116566	ứng dụng	0
-0.30103	ừ, được

\3-grams:
-0.04139268	dụng ai là
-0.1398791	không biết </s>
-0.1249387	tôi biết rồi
-0.1249387	<s> bóng đêm
-0.1249387	<s> bạn có
-0.06694679	chào bạn </s>
-0.1249387	muốn bạt đèn
-1.028571	<s> bật màn
-1.028571	<s> bật điều
-0.3296013	<s> bật đèn
-0.9580013	hãy bật camera
-0.1450879	hãy bật đèn
-0.4057654	muốn bật đèn
-0.1249387	tôi bật đèn
-0.1249387	bật camera </s>
-0.1249387	mở camera </s>
-0.1249387	xin chao </s>
-0.1249387	mở cho tôi
-0.3802112	đèn cho tôi
-0.3802112	<s> chào bạn
-0.2498775	xin chào </s>
-0.1249387	xin chào, mình
-0.1249387	tôi cái máy
-0.1249387	bạn có thể
-0.3802112	tên của tôi
-0.06694679	trình duyệt </s>
-0.7939455	ứng dụng </s>
-0.6690068	ứng dụng ai
-0.7939455	ứng dụng nghe
-0.06694679	gửi email </s>
-0.06694679	hãy giúp tôi
-0.06694679	lên giúp tôi
-0.1812309	đèn giúp tôi
-0.1249387	ăn gà rân
-0.3802112	<s> gửi mail
-0.1249387	tôi hiểu rồi
-0.1249387	từ hà nội
-0.3609841	<s> hãy bật
-1.087983	<s> hãy giúp
-1.264074	<s> hãy giảm
-0.7869528	<s> hãy mở
-1.087983	<s> hãy tắt
-0.02020339	màn hình </s>
-0.2398355	điều hòa </s>
-0.4616843	điều hòa đi
-0.01523997	<s> hôm nay
-0.1249387	ngày hôm nay
-0.1249387	là hùng </s>
-0.1249387	không hẳn </s>
-0.7067953	<s> không hẳn
-0.5307041	<s> không phải
-0.06694679	mình không biết
-0.02802872	ai là triệu
-1.039335	mình là minh
-0.4372748	mình là nam
-1.039335	mình là tuấn
-0.1249387	nay là ngày
-0.5611014	tên là nam
-0.7829502	tên là tuấn
-1.226396	tôi là mạnh
-0.3802112	đúng là như
-0.06694679	tivi lên </s>
-0.2023266	đèn lên </s>
-0.7463946	đèn lên giúp
-0.3802112	âm lượng đi
-0.3802112	ngày mai là
-0.06694679	gửi mail </s>
-0.1249387	<s> minh </s>
-0.04139268	là minh </s>
-1.123234	tôi muốn bạt
-0.5791662	tôi muốn bật
-1.123234	tôi muốn gửi
-0.7252942	tôi muốn mở
-1.123234	tôi muốn tắt
-0.1249387	bật màn hình
-0.04139268	tắt màn hình
-0.9288367	<s> mình không
-0.2920146	<s> mình là
-0.4517155	<s> mình tên
-0.1249387	giúp mình </s>
-0.1249387	là mạnh </s>
-0.1249387	thấy mệt </s>
-0.6374897	<s> mở camera
-0.6374897	<s> mở điều
-0.4613985	<s> mở ứng
-0.30103	hãy mở ứng
-0.1812309	muốn mở ứng
-0.1249387	nhà mở cho
-0.04453512	là nam </s>
-0.752344	hôm nay là
-0.752344	hôm nay nóng
-0.5762527	hôm nay trời
-0.752344	hôm nay tôi
-0.06694679	dụng nghe nhạc
-0.3802112	<s> ngày hôm
-0.1249387	bao nhiêu </s>
-0.1249387	giảm nhiệt độ
-0.1249387	ở nhà mở
-0.02802872	nghe nhạc </s>
-0.3364597	trời nóng quá
-0.6374897	trời nóng thật
-0.3802112	hải phòng </s>
-0.02802872	triệu phú </s>
-0.5698753	không phải </s>
-0.02020339	nóng quá </s>
-0.1249387	gà rân </s>
-0.1249387	biết rồi </s>
-0.1249387	hiểu rồi </s>
-0.06694679	là sơn </s>
-0.1249387	tôi thấy mệt
-0.04139268	nóng thật </s>
-0.06694679	<s> thời tiết
-0.1249387	bật tivi lên
-0.3802112	thời tiết nóng
-0.02802872	là triệu phú
-0.04139268	<s> trời nóng
-0.06694679	nay trời nóng
-0.02020339	là tuấn </s>
-0.1249387	<s> tên của
-0.06923859	mình tên là
-0.04139268	tôi tên là
-1.325269	<s> tôi không
-0.7812004	<s> tôi là
-0.3040792	<s> tôi muốn
-1.024238	<s> tôi tên
-1.325269	<s> tôi đang
-0.4259687	cho tôi </s>
-0.4259687	cho tôi cái
-0.3802112	của tôi </s>
-0.4259687	giúp tôi </s>
-0.90309	giúp tôi bật
-0.04139268	<s> tăng âm
-0.60206	<s> tắt màn
-0.4259687	<s> tắt đèn
-0.3802112	hãy tắt màn
-0.1249387	muốn tắt đèn
-0.1249387	<s> tổng thống
-0.5698753	đúng vậy </s>
-0.8239087	<s> xin chao
-0.5228788	<s> xin chào
-0.8239087	<s> xin chào,
-0.1249387	giảm âm lượng
-0.5698753	tăng âm thanh
-0.1249387	thích ăn gà
-0.5698753	tôi đang ở
-0.06694679	hòa đi </s>
-0.1249387	đèn đi </s>
-0.1249387	bật điều hòa
-0.06694679	mở điều hòa
-0.06694679	độ điều hòa
-0.1249387	bạt đèn </s>
-0.5293448	bật đèn </s>
-1.006466	bật đèn cho
-0.7846173	bật đèn giúp
-0.4835873	bật đèn lên
-0.1398791	tắt đèn </s>
-0.1249387	bóng đêm </s>
-0.7140337	<s> đúng là
-0.589095	<s> đúng vậy
-0.3802112	tìm đường từ
-0.2498775	nhiệt độ điều
-0.1249387	đang ở nhà
-0.1249387	bật ứng dụng
-0.006530867	mở ứng dụng

\end\
