
\data\
ngram 1=191
ngram 2=424
ngram 3=164

\1-grams:
-3.121888	20%	-0.2213236
-3.121888	40%	-0.2213236
-3.121888	50	-0.3007018
-3.121888	67	-0.2213236
-0.775535	</s>
-99	<s>	-0.6058584
-0.8454263	<unk>
-2.167645	ai	-0.4061927
-2.820858	alo	-0.2209293
-3.121888	ban	-0.3000448
-2.820858	bao	-0.4764647
-3.121888	biêt	-0.2213236
-2.167645	biết	-0.4222111
-3.121888	brother	-0.2213236
-3.121888	bè	-0.2964133
-2.820858	bóng	-0.4761361
-2.218798	bạn	-0.3958356
-3.121888	bạn,	-0.2897317
-3.121888	bạn?	-0.2213236
-2.820858	bạt	-0.4644743
-1.478435	bật	-0.668749
-2.519828	camera	-0.6192636
-2.820858	chao	-0.3974149
-3.121888	chaof	-0.2213236
-2.27679	cho	-0.3896946
-2.218798	chào	-0.4810036
-2.820858	chào,	-0.465823
-3.121888	chào.	-0.2897317
-3.121888	chó	-0.3000448
-3.121888	chút	-0.2213236
-2.820858	con	-0.3003735
-2.820858	cái	-0.4764647
-2.820858	còn	-0.2980677
-2.820858	có	-0.4761361
-3.121888	căn	-0.2997159
-3.121888	cần	-0.2213236
-2.519828	của	-0.4415931
-2.644767	duyệt	-0.5223536
-1.97576	dụng	-0.3850228
-2.644767	email	-0.5223536
-3.121888	giang	-0.2213236
-3.121888	giang,	-0.3003735
-1.97576	giúp	-0.8675618
-2.519828	giảm	-0.473498
-3.121888	giờ	-0.2774395
-2.820858	gà	-0.4764647
-2.644767	gì	-0.3178393
-3.121888	gọi	-0.2774395
-2.343737	gửi	-0.6000874
-3.121888	hai	-0.2983979
-3.121888	hey	-0.3007018
-2.644767	hiểu	-0.3158626
-3.121888	hiện	-0.2977374
-3.121888	hoàng	-0.2213236
-2.519828	hà	-0.697656
-1.57782	hãy	-0.6493891
-2.343737	hình	-0.7653916
-2.218798	hòa	-0.6145085
-2.167645	hôm	-0.9967074
-2.644767	hùng	-0.2964133
-3.121888	hương	-0.2213236
-2.519828	hải	-0.3958356
-2.820858	hẳn	-0.3974149
-3.121888	hộ	-0.2774395
-3.121888	khi	-0.3007018
-3.121888	khác	-0.2213236
-3.121888	khôg	-0.2213236
-1.97576	không	-0.5741712
-3.121888	luyện	-0.3007018
-3.121888	luôn	-0.2213236
-1.389494	là	-0.4903013
-3.121888	làm	-0.3003735
-1.891439	lên	-0.4922883
-2.644767	lượng	-0.3883218
-3.121888	lại	-0.2930853
-2.519828	mai	-0.2643731
-2.644767	mail	-0.5223536
-3.121888	mait	-0.2213236
-2.343737	minh	-0.7653916
-3.121888	mp3	-0.2213236
-1.741677	muốn	-0.4646481
-2.343737	màn	-0.8431255
-2.820858	máy	-0.2209293
-1.590409	mình	-0.7762445
-2.820858	mạnh	-0.3974149
-3.121888	mấy	-0.2213236
-2.644767	mệt	-0.3154661
-3.121888	mọi	-0.3007018
-3.121888	một	-0.3007018
-1.779465	mở	-0.5542338
-3.121888	mỹ	-0.2829457
-1.917768	nam	-0.7075015
-2.121888	nay	-0.4947976
-2.422918	nghe	-0.7765081
-3.121888	ngu	-0.2213236
-2.218798	ngày	-0.408363
-3.121888	người	-0.3007018
-2.820858	nhiêu	-0.3974149
-2.519828	nhiệt	-0.697656
-2.644767	nhà	-0.3876505
-2.820858	như	-0.2974067
-2.422918	nhạc	-0.6984449
-3.121888	nhỏ	-0.2987278
-3.121888	ninh	-0.3003735
-2.820858	nào	-0.3974149
-3.121888	nói	-0.3000448
-2.080495	nóng	-0.5849435
-2.519828	nội	-0.2165685
-3.121888	obama	-0.3007018
-3.121888	ok	-0.2213236
-3.121888	ok,	-0.2774395
-3.121888	phim	-0.2213236
-2.519828	phòng	-0.3966259
-2.422918	phú	-0.6984449
-2.519828	phải	-0.2839136
-3.121888	phần	-0.3007018
-3.121888	quang	-0.2213236
-3.121888	quyết	-0.2980677
-2.27679	quá	-0.8233836
-3.121888	quạt	-0.2213236
-3.121888	quảng	-0.3007018
-2.820858	rân	-0.3974149
-2.343737	rồi	-0.5219594
-3.121888	sao	-0.2983979
-3.121888	sinh	-0.2983979
-2.820858	sáng	-0.2950852
-2.644767	sơn	-0.5223536
-2.644767	thanh	-0.2910763
-2.820858	thích	-0.4764647
-3.121888	thôi	-0.2213236
-3.121888	thưởng	-0.2774395
-2.820858	thấy	-0.4761361
-2.519828	thật	-0.6192636
-3.121888	thắp	-0.3003735
-2.422918	thế	-0.4635727
-3.121888	thếa	-0.2213236
-2.644767	thể	-0.292082
-2.820858	thống	-0.3003735
-2.644767	thời	-0.6010749
-3.121888	thứ	-0.3007018
-2.519828	tivi	-0.467503
-2.644767	tiết	-0.3916625
-3.121888	tpoi	-0.3003735
-3.121888	trai	-0.2997159
-2.422918	triệu	-0.7765081
-2.644767	trình	-0.6010749
-3.121888	trăm	-0.2213236
-2.27679	trời	-0.8994668
-2.343737	tuấn	-0.7653916
-1.866616	tên	-0.7202218
-2.644767	tìm	-0.6010749
-1.27679	tôi	-0.5336347
-3.121888	tôi?	-0.2213236
-2.422918	tăng	-0.5404448
-3.121888	tập	-0.3003735
-2.080495	tắt	-0.6529695
-2.820858	tổng	-0.4764647
-2.519828	từ	-0.3650146
-3.121888	uk	-0.3007018
-3.121888	uk,	-0.2774395
-3.121888	vũ	-0.2213236
-2.343737	vậy	-0.3829905
-2.820858	về	-0.2983979
-2.820858	với	-0.2209293
-3.121888	xem	-0.3007018
-2.121888	xin	-0.4725045
-3.121888	xn	-0.2983979
-3.121888	youtube	-0.2213236
-2.27679	âm	-0.515268
-3.121888	ý	-0.2774395
-2.820858	ăn	-0.4764647
-2.519828	đang	-0.3349334
-2.042707	đi	-0.6172886
-2.218798	điều	-0.9516104
-3.121888	đnè	-0.2213236
-3.121888	đây	-0.2213236
-3.121888	đã	-0.3000448
-1.542104	đèn	-0.707002
-3.121888	đén	-0.2213236
-2.644767	đêm	-0.5223536
-2.080495	đúng	-0.4231303
-2.644767	đường	-0.3926598
-2.820858	được	-0.2997159
-3.121888	đấy	-0.2213236
-2.820858	đến	-0.2983979
-3.121888	để	-0.3007018
-3.121888	đồ	-0.3007018
-2.519828	độ	-0.4731671
-2.644767	ở	-0.396626
-1.97576	ứng	-1.171475
-3.121888	ừ,	-0.3003735

\2-grams:
-0.30103	20% </s>
-0.30103	40% </s>
-0.30103	50 phần
-0.30103	67 </s>
-2.127105	<s> alo
-2.127105	<s> bóng	0
-2.127105	<s> bạn	-0.39794
-1.172862	<s> bật	0.04139268
-1.951014	<s> chào	-0.08354607
-2.428135	<s> con
-2.428135	<s> giúp
-2.428135	<s> giảm
-1.951014	<s> gửi	-0.01772878
-2.428135	<s> hey
-0.8966559	<s> hãy	0.009984255
-1.583037	<s> hôm	0.09691
-2.428135	<s> hùng
-2.428135	<s> khôg
-1.583037	<s> không	-0.09843117
-2.127105	<s> minh	0.3679768
-1.030195	<s> mình	-0.3332148
-2.428135	<s> mọi
-1.583037	<s> mở	-0.1918855
-2.127105	<s> nam
-1.951014	<s> ngày	-0.1492981
-2.428135	<s> nhiệt
-2.428135	<s> ok,
-2.428135	<s> rồi
-2.428135	<s> sao
-2.428135	<s> thể
-1.951014	<s> thời	0
-2.428135	<s> tpoi
-1.826075	<s> trời	0.20412
-2.127105	<s> tên	-0.4134522
-2.428135	<s> tìm
-0.8260748	<s> tôi	-0.2801862
-1.826075	<s> tăng	-0.3309932
-1.649984	<s> tắt	0.1918855
-2.127105	<s> tổng	0
-2.428135	<s> uk
-2.428135	<s> uk,
-1.428135	<s> xin	0
-2.428135	<s> xn
-2.428135	<s> ý
-2.428135	<s> đã
-1.386742	<s> đúng	0
-2.428135	<s> để
-2.428135	<s> đồ
-2.428135	<s> ở
-2.428135	<s> ừ,
-0.8129134	ai </s>
-1.113943	ai ai
-0.4149733	ai là	-0.748993
-1.113943	ai đây
-0.60206	alo </s>
-0.60206	alo hiện
-0.30103	ban đêm
-0.1760913	bao nhiêu	0
-0.30103	biêt </s>
-0.4149733	biết </s>
-1.113943	biết nói
-0.8129134	biết rồi	-0.05115253
-1.113943	biết tên
-0.30103	brother </s>
-0.30103	bè giúp
-0.1760913	bóng đêm	0.1249388
-0.4771213	bạn </s>
-1.079181	bạn bè
-0.7781513	bạn có	0
-1.079181	bạn lại
-0.30103	bạn, mình
-0.30103	bạn? </s>
-0.1760913	bạt đèn	-0.2863067
-1.740363	bật ai
-1.439333	bật camera	0.2218488
-1.439333	bật màn	0.3679768
-1.740363	bật quạt
-1.439333	bật tivi	-0.1760913
-1.740363	bật trình
-1.439333	bật điều	0.4771213
-1.740363	bật đnè
-0.2779647	bật đèn	-0.02915829
-1.740363	bật đén
-1.439333	bật ứng	0.6989701
-0.09691001	camera </s>
-0.1760913	chao </s>
-0.30103	chaof </s>
-1.041393	cho mình
-1.041393	cho nhỏ
-0.4393327	cho tôi	-0.4068337
-1.041393	cho đèn
-0.4393327	chào </s>
-0.5642715	chào bạn	-0.4259688
-1.041393	chào bạn,
-0.1760913	chào, mình
-0.30103	chào. mình
-0.30103	chó nhà
-0.30103	chút </s>
-0.60206	con chó
-0.60206	con trai
-0.1760913	cái máy
-0.60206	còn bạn
-0.60206	còn bạn?
-0.1760913	có thể
-0.30103	căn phòng
-0.30103	cần </s>
-0.7781513	của mình
-0.30103	của tôi	-0.1631431
-0.1249387	duyệt </s>
-0.845098	dụng </s>
-0.7201593	dụng ai	-0.4881167
-1.322219	dụng mp3
-0.845098	dụng nghe	0.1760913
-1.322219	dụng trình
-1.322219	dụng youtube
-1.322219	dụng đi
-0.1249387	email </s>
-0.30103	giang </s>
-0.30103	giang, còn
-0.90309	giúp mình	-0.4423591
-0.1249387	giúp tôi	-0.184985
-0.4771213	giảm nhiệt	0.2218488
-0.4771213	giảm âm	-0.3222193
-0.30103	giờ tôi
-0.1760913	gà rân	0
-0.39794	gì </s>
-0.69897	gì luôn
-0.30103	gọi tôi
-0.4259687	gửi email	0
-0.4259687	gửi mail	0
-0.30103	hai bạn
-0.30103	hey brother
-0.69897	hiểu </s>
-0.39794	hiểu rồi	-0.05115253
-0.30103	hiện nay
-0.30103	hoàng </s>
-0.09691001	hà nội
-0.4130037	hãy bật	-0.1839166
-1.643453	hãy cho
-1.166331	hãy giúp	0
-1.342423	hãy giảm
-1.643453	hãy gửi
-0.8653014	hãy mở	-0.05690485
-1.643453	hãy tìm
-1.643453	hãy tăng
-1.166331	hãy tắt	-0.07572071
-0.06694679	hình </s>
-0.30103	hòa </s>
-0.5228788	hòa đi	-0.1249388
-0.04575749	hôm nay	0.03218472
-0.39794	hùng </s>
-0.69897	hùng là
-0.30103	hương </s>
-0.7781513	hải </s>
-0.30103	hải phòng	0.07918122
-0.1760913	hẳn </s>
-0.30103	hộ tôi
-0.30103	khi khác
-0.30103	khác </s>
-0.30103	khôg </s>
-1.278754	không biêt
-0.5006024	không biết	-0.2151154
-1.278754	không cần
-0.9777236	không hẳn	0
-0.6766936	không phải	0
-0.30103	luyện tập
-0.30103	luôn </s>
-1.886491	là ai
-1.886491	là bao
-1.886491	là giang
-1.886491	là hoàng
-1.585461	là hùng	-0.2552725
-1.886491	là hương
-1.886491	là hải
-1.886491	là mai
-1.886491	là mait
-1.284431	là minh	0.146128
-1.585461	là mạnh	0
-0.7403627	là nam	-0.1472151
-1.585461	là ngày
-1.585461	là như
-1.886491	là quang
-1.409369	là sơn	0
-1.886491	là thưởng
-1.886491	là thế
-1.886491	là thứ
-1.187521	là triệu	0
-1.108339	là tuấn	0
-1.886491	là tên
-1.886491	là vũ
-0.30103	làm được
-1.361728	lên 20%
-1.361728	lên 40%
-1.361728	lên 67
-0.3617278	lên </s>
-0.8846066	lên giúp	0
-1.361728	lên đi
-0.69897	lượng lên
-0.39794	lượng đi
-0.30103	lại muốn
-0.845098	mai </s>
-0.544068	mai là
-0.845098	mai thế
-0.1249387	mail </s>
-0.30103	mait </s>
-0.06694679	minh </s>
-0.30103	mp3 </s>
-1.544068	muốn biết
-1.243038	muốn bạt	0
-0.69897	muốn bật	0.1290947
-1.544068	muốn cho
-1.243038	muốn gửi
-1.544068	muốn luyện
-0.845098	muốn mở	-0.1696091
-1.544068	muốn nghe
-1.544068	muốn tìm
-1.243038	muốn tắt	-0.2340832
-1.544068	muốn xem
-0.06694679	màn hình	0
-0.60206	máy </s>
-0.60206	máy đấy
-1.113943	mình </s>
-1.113943	mình không	-0.4372498
-0.3606157	mình là	-0.1217818
-0.5910646	mình tên	-0.2138799
-1.591065	mình đến
-0.1760913	mạnh </s>
-0.30103	mấy </s>
-0.39794	mệt </s>
-0.69897	mệt quá
-0.30103	mọi người
-0.30103	một chút
-1.176091	mở camera	0.2218488
-1.176091	mở cho	-0.2808266
-1.477121	mở giúp
-1.477121	mở nghe
-1.477121	mở tivi
-1.477121	mở trình
-1	mở điều	0.3521825
-0.4357286	mở ứng	0.09691012
-0.30103	mỹ là
-0.1326256	nam </s>
-1.278754	nam con
-1.278754	nam mình
-0.845098	nay là	-0.4656918
-0.845098	nay nóng
-0.6690068	nay trời	0.30103
-0.6690068	nay tôi
-0.07918125	nghe nhạc	0
-0.30103	ngu </s>
-1.113943	ngày bao
-1.113943	ngày gì
-0.8129134	ngày hôm	0.5228788
-0.6368221	ngày mai	-0.07572071
-1.113943	ngày nào
-0.30103	người gọi
-0.1760913	nhiêu </s>
-0.09691001	nhiệt độ	0
-0.69897	nhà ai
-0.39794	nhà mở	-0.447158
-0.60206	như thế
-0.60206	như vậy
-0.07918125	nhạc </s>
-0.30103	nhỏ âm
-0.30103	ninh về
-0.1760913	nào </s>
-0.30103	nói gì
-1.146128	nóng </s>
-0.3679768	nóng quá	0.05799198
-0.544068	nóng thật	0
-0.90309	nội </s>
-0.90309	nội còn
-0.90309	nội ngày
-0.90309	nội đến
-0.30103	obama sinh
-0.30103	ok </s>
-0.30103	ok, tôi
-0.30103	phim </s>
-0.30103	phòng </s>
-0.7781513	phòng về
-0.07918125	phú </s>
-0.544068	phải </s>
-0.845098	phải thế
-0.845098	phải vậy
-0.30103	phần trăm
-0.30103	quang </s>
-0.30103	quyết ai
-0.05799195	quá </s>
-0.30103	quạt </s>
-0.30103	quảng ninh
-0.1760913	rân </s>
-0.20412	rồi </s>
-0.90309	rồi giờ
-0.30103	sao bạn
-0.30103	sinh ngày
-0.60206	sáng căn
-0.60206	sáng lên
-0.1249387	sơn </s>
-0.7781513	thanh 50
-0.7781513	thanh lên
-0.7781513	thanh đi
-0.1760913	thích ăn	0
-0.30103	thôi </s>
-0.30103	thưởng tôi
-0.1760913	thấy mệt	-0.2552725
-0.09691001	thật </s>
-0.30103	thắp sáng
-0.243038	thế </s>
-0.845098	thế nào
-0.30103	thếa </s>
-0.7781513	thể giảm
-0.7781513	thể làm
-0.7781513	thể mở
-0.60206	thống mỹ
-0.60206	thống obama
-0.1249387	thời tiết	0
-0.30103	thứ mấy
-0.30103	tivi lên	-0.3542755
-0.7781513	tivi đi
-0.69897	tiết ngày
-0.39794	tiết nóng
-0.30103	tpoi thích
-0.30103	trai của
-0.07918125	triệu phú	0
-0.1249387	trình duyệt	0
-0.30103	trăm </s>
-0.05799195	trời nóng	0.146128
-0.06694679	tuấn </s>
-0.8653014	tên của	0.07918122
-1.342423	tên giang,
-0.2284793	tên là	-0.09123287
-1.342423	tên tôi?
-0.1249387	tìm đường	0
-0.8981265	tôi </s>
-1.638489	tôi biết	-0.4045706
-1.638489	tôi bật	-0.1517319
-1.638489	tôi cái	0
-1.638489	tôi hiểu	-0.2552725
-1.462398	tôi không
-0.9395192	tôi là	-0.03687522
-0.5970966	tôi muốn	-0.06379923
-1.939519	tôi mệt
-1.939519	tôi mở
-1.939519	tôi thích
-1.638489	tôi thấy	0
-1.939519	tôi thắp
-1.337459	tôi tên	-0.3107899
-1.939519	tôi với
-1.337459	tôi đang	0
-1.939519	tôi ứng
-0.30103	tôi? </s>
-0.845098	tăng nhiệt
-0.243038	tăng âm	0.008773908
-0.30103	tập với
-0.544068	tắt màn	0.146128
-1.146128	tắt tivi
-0.3679768	tắt đèn	-0.2351542
-0.1760913	tổng thống
-0.544068	từ hà	0.2218488
-0.845098	từ hải
-0.845098	từ quảng
-0.30103	uk ok
-0.30103	uk, tôi
-0.30103	vũ </s>
-0.3521825	vậy </s>
-0.9542425	vậy hai
-0.9542425	vậy hãy
-0.60206	về hà
-0.60206	về hải
-0.60206	với </s>
-0.60206	với quyết
-0.30103	xem phim
-0.8750613	xin chao	0
-1.176091	xin chaof
-0.5740313	xin chào	-0.1047353
-0.8750613	xin chào,	0
-1.176091	xin chào.
-0.30103	xn chào
-0.30103	youtube </s>
-1	âm lên
-0.5228788	âm lượng	0
-0.5228788	âm thanh
-0.30103	ý tôi
-0.1760913	ăn gà	0
-0.845098	đang muốn
-0.845098	đang tôi
-0.544068	đang ở	-0.2552725
-0.1760913	đi </s>
-1.176091	đi một
-1.176091	đi từ
-0.05115252	điều hòa	0
-0.30103	đnè </s>
-0.30103	đây </s>
-0.30103	đã hiểu
-0.4490925	đèn </s>
-1.176091	đèn cho	-0.02555411
-0.9542425	đèn giúp	0.2340832
-1.653213	đèn hộ
-0.6532125	đèn lên	-0.1501555
-1.653213	đèn sáng
-1.352183	đèn đi	0
-0.30103	đén </s>
-0.1249387	đêm </s>
-1.230449	đúng không
-0.7533277	đúng là	-0.2104193
-1.230449	đúng rồi
-1.230449	đúng thế
-1.230449	đúng thếa
-0.6283889	đúng vậy	0.1091445
-0.39794	đường từ
-0.69897	đường đi
-0.60206	được gì
-0.60206	được thôi
-0.30103	đấy </s>
-0.60206	đến hải
-0.60206	đến từ
-0.30103	để khi
-0.30103	đồ ngu
-0.7781513	độ hà
-0.30103	độ điều	0.3521825
-0.69897	ở ban
-0.39794	ở nhà	-0.2552725
-0.02996322	ứng dụng	0
-0.30103	ừ, được

\3-grams:
-0.09691001	dụng ai là
-0.20412	không biết </s>
-0.1760913	tôi biết rồi
-0.1760913	<s> bóng đêm
-0.1760913	<s> bạn có
-0.1249387	chào bạn </s>
-0.1760913	muốn bạt đèn
-1.09691	<s> bật màn
-1.09691	<s> bật điều
-0.39794	<s> bật đèn
-1.021189	hãy bật camera
-0.2082759	hãy bật đèn
-0.4393327	muốn bật đèn
-0.1760913	tôi bật đèn
-0.1760913	bật camera </s>
-0.1760913	mở camera </s>
-0.1760913	xin chao </s>
-0.1760913	mở cho tôi
-0.39794	đèn cho tôi
-0.39794	<s> chào bạn
-0.30103	xin chào </s>
-0.1760913	xin chào, mình
-0.1760913	tôi cái máy
-0.1760913	bạn có thể
-0.39794	tên của tôi
-0.1249387	trình duyệt </s>
-0.845098	ứng dụng </s>
-0.7201593	ứng dụng ai
-0.845098	ứng dụng nghe
-0.1249387	gửi email </s>
-0.1249387	hãy giúp tôi
-0.1249387	lên giúp tôi
-0.243038	đèn giúp tôi
-0.1760913	ăn gà rân
-0.39794	<s> gửi mail
-0.1760913	tôi hiểu rồi
-0.1760913	từ hà nội
-0.4293485	<s> hãy bật
-1.156347	<s> hãy giúp
-1.332438	<s> hãy giảm
-0.8553172	<s> hãy mở
-1.156347	<s> hãy tắt
-0.06694679	màn hình </s>
-0.30103	điều hòa </s>
-0.5228788	điều hòa đi
-0.05799195	<s> hôm nay
-0.1760913	ngày hôm nay
-0.1760913	là hùng </s>
-0.1760913	không hẳn </s>
-0.7403627	<s> không hẳn
-0.5642715	<s> không phải
-0.1249387	mình không biết
-0.07918125	ai là triệu
-1.09691	mình là minh
-0.49485	mình là nam
-1.09691	mình là tuấn
-0.1760913	nay là ngày
-0.60206	tên là nam
-0.8239087	tên là tuấn
-0.9777236	tôi là mạnh
-0.39794	đúng là như
-0.1249387	tivi lên </s>
-0.2688453	đèn lên </s>
-0.8129134	đèn lên giúp
-0.39794	âm lượng đi
-0.39794	ngày mai là
-0.1249387	gửi mail </s>
-0.1760913	<s> minh </s>
-0.09691001	là minh </s>
-1.190332	tôi muốn bạt
-0.6462637	tôi muốn bật
-1.190332	tôi muốn gửi
-0.7923917	tôi muốn mở
-1.190332	tôi muốn tắt
-0.1760913	bật màn hình
-0.09691001	tắt màn hình
-0.9700368	<s> mình không
-0.3332147	<s> mình là
-0.4929155	<s> mình tên
-0.1760913	giúp mình </s>
-0.1760913	là mạnh </s>
-0.1760913	thấy mệt </s>
-0.69897	<s> mở camera
-0.69897	<s> mở điều
-0.5228788	<s> mở ứng
-0.3521825	hãy mở ứng
-0.243038	muốn mở ứng
-0.1760913	nhà mở cho
-0.09017663	là nam </s>
-0.8129134	hôm nay là
-0.8129134	hôm nay nóng
-0.6368221	hôm nay trời
-0.8129134	hôm nay tôi
-0.1249387	dụng nghe nhạc
-0.39794	<s> ngày hôm
-0.1760913	bao nhiêu </s>
-0.1760913	giảm nhiệt độ
-0.1760913	ở nhà mở
-0.07918125	nghe nhạc </s>
-0.39794	trời nóng quá
-0.69897	trời nóng thật
-0.39794	hải phòng </s>
-0.07918125	triệu phú </s>
-0.544068	không phải </s>
-0.06694679	nóng quá </s>
-0.1760913	gà rân </s>
-0.1760913	biết rồi </s>
-0.1760913	hiểu rồi </s>
-0.1249387	là sơn </s>
-0.1760913	tôi thấy mệt
-0.09691001	nóng thật </s>
-0.1249387	<s> thời tiết
-0.1760913	bật tivi lên
-0.39794	thời tiết nóng
-0.07918125	là triệu phú
-0.09691001	<s> trời nóng
-0.1249387	nay trời nóng
-0.06694679	là tuấn </s>
-0.1760913	<s> tên của
-0.1249387	mình tên là
-0.09691001	tôi tên là
-1.389166	<s> tôi không
-0.845098	<s> tôi là
-0.3679768	<s> tôi muốn
-1.088136	<s> tôi tên
-1.389166	<s> tôi đang
-0.4771213	cho tôi </s>
-0.4771213	cho tôi cái
-0.39794	của tôi </s>
-0.4771213	giúp tôi </s>
-0.9542425	giúp tôi bật
-0.09691001	<s> tăng âm
-0.6532125	<s> tắt màn
-0.4771213	<s> tắt đèn
-0.39794	hãy tắt màn
-0.1760913	muốn tắt đèn
-0.1760913	<s> tổng thống
-0.544068	đúng vậy </s>
-0.8750613	<s> xin chao
-0.5740313	<s> xin chào
-0.8750613	<s> xin chào,
-0.1760913	giảm âm lượng
-0.544068	tăng âm thanh
-0.1760913	thích ăn gà
-0.544068	tôi đang ở
-0.1249387	hòa đi </s>
-0.1760913	đèn đi </s>
-0.1760913	bật điều hòa
-0.1249387	mở điều hòa
-0.1249387	độ điều hòa
-0.1760913	bạt đèn </s>
-0.5898255	bật đèn </s>
-1.066947	bật đèn cho
-0.845098	bật đèn giúp
-0.544068	bật đèn lên
-0.20412	tắt đèn </s>
-0.1760913	bóng đêm </s>
-0.7533277	<s> đúng là
-0.6283889	<s> đúng vậy
-0.39794	tìm đường từ
-0.30103	nhiệt độ điều
-0.1760913	đang ở nhà
-0.1760913	bật ứng dụng
-0.03778856	mở ứng dụng

\end\
